-2.691763231996447, 3.561891643330455, -4.044911242090166, -3.1361294561065733, 0.6781157315708697, 1.6663390514440835, -0.774318347685039, 4.698681968729943, 2.6220785989426076, 3.596008117310703
0.9257170674391091, -4.100632129702717, 1.9654222112149, 0.1839996688067913, 2.063622660934925, 3.109439038671553, 0.07503977045416832, -1.9495425024069846, 4.829116021282971, 4.540305219125003
-1.5399336582049727, 0.17018903279677033, 3.4950109478086233, -1.0165647277608514, -3.639796171337366, -0.06678545381873846, 0.3663352970033884, -0.8596797403879464, -3.5571370157413185, -1.64623508695513
3.1352922366932034, 4.000340744387358, 1.639925807248801, 4.189134296029806, 4.413046343252063, 3.816683611366898, 2.346361498348415, 2.007893391419202, -3.2200560229830444, -0.7944295951165259
0.20129579352214932, 4.93666649563238, 1.9484328385442495, -2.7085157483816147, 1.0764489462599158, 2.3106844001449645, -2.5174644798971713, -4.372053553815931, -3.294921580236405, -3.369111616630107
-0.13635624665766954, -4.088069009594619, -2.7316916664130986, 1.23938103672117, 0.5428313161246479, 2.591452836059034, -0.5304086557589471, 1.30641323979944, -1.0924651543609798, -1.568168462254107
-0.34393546637147665, 2.0790833327919245, 0.831338653806597, -4.734613229520619, 0.8709853864274919, -1.3076775870285928, -0.8232039539143443, 3.5094355698674917, 0.07029088446870446, 2.874517017044127
2.740729106590152, 0.745152875315398, 1.0422680038027465, -2.9989274335093796, -4.629731250461191, -0.13595796888694167, 1.0674151522107422, 0.7000156375579536, -3.761324994266033, -2.2687827330082655
-1.6522574168629944, 3.4434155374765396, -1.4100526506081223, 3.8563687005080283, -3.954027071595192, 3.8849356840364635, -0.18719315994530916, 1.7714229808188975, 4.536733157001436, 1.5909729525446892