-0.36443469552980323, -0.36613327015551017, 0.4009144576867129, 0.4011022372432573, 0.29195056084165666, -0.2396605147106251, -0.36624722806648224, 0.4014185715616076, -0.23966053397865283
0.23220478827579474, 0.2293803829125823, -0.2534979084669266, -0.25333991766048586, -0.38505049504675254, 0.4621710184438735, 0.22918390949011933, -0.2530725190674878, 0.4621710709866591
0.43464624330545626, 0.43166087444642465, -0.5995533682826647, -0.5991463284148586, -0.7949280074907085, 0.6699871530195773, 0.43145252097414827, -0.5984577632896566, 0.6699872238556747
-0.36443469552980323, -0.36613327015551017, 0.4009144576867129, 0.4011022372432573, 0.29195056084165666, -0.2396605147106251, -0.36624722806648224, 0.4014185715616076, -0.23966053397865283
0.011893456333410012, 0.004430233399877068, -0.01714308972474405, -0.016319186438057614, -0.5375186838393624, 0.6631789677305806, 0.003916922533386953, -0.014927001871661698, 0.6631790744135745
-0.36443469552980323, -0.36613327015551017, 0.4009144576867129, 0.4011022372432573, 0.29195056084165666, -0.2396605147106251, -0.36624722806648224, 0.4014185715616076, -0.23966053397865283