0.09334932160771892, -1.9578762818008828, -0.9441678208996178, 2.201945983966459, 3.627961447122654, 0.6301919508642521, 2.8222041171382624, 2.4001279722834377, 1.1603389228972092
-0.0738071287282867, 3.916264467282669, -1.2731341316920488, -0.12484232132266124, 2.738270631043984, 0.3434498270924139, -0.3880517305781299, 2.8367289121576813, -0.10150483339084714
-2.871162235487219, 1.9353889479399091, -1.1141791152168419, -1.3534087231783078, 0.3662146112173428, 0.3421377966464426, 3.698560166344836, 1.8177931057795702, 1.0817744819489112
-2.9699724078649568, -2.2235021886212314, 0.40782306068885654, -3.647227052282624, -3.3364983673507527, 3.8744453178208764, -4.132415616431654, 2.4028791324422625, 1.8767246726674998
3.3677957939485696, 2.583256579383461, 2.082145746824222, -0.11497546174461147, -3.0446960254784607, 1.83348320176949, -1.2633308273331993, -1.822802611187002, 2.146143658665596
-1.5870578421822512, -2.909340150670621, 1.394012573168538, 0.2479795094786719, -1.750844731388077, 0.7459822293726208, 1.2186623447120815, -0.5251698065141682, 0.9583061830698868